#ifndef LEGENDRE_H
#define LEGENDRE_H

class Legendre {
	public:
		static void values(unsigned short n, unsigned short i, double &root, double &weight) {
			if(n==2) {
				double root2[] = {-0.5773502691896257, 0.57735026918962573};
				root = root2[i];
				double weight2[] = {0.9999999999999994, 1};
				weight = weight2[i];
				return;
			}
			if(n==3) {
				double root3[] = {-0,7745966692414934, -2.872702076217594e-17, 0.77459666924148343};
				root = root3[i];
				double weight3[] = {0.5555555555555775, 0.8888888888888765, 0.5555555555555468};
				weight = weight3[i];
				return;
			}
			if(n==4) {
				double root4[] = {-0.8611363115940527, -0.3399810435848563, 0.3399810435848563, 0.86113631159405273};
				root = root4[i];
				double weight4[] = {0.347854845137458, 0.6521451548625398, 0.6521451548625469, 0.3478548451374511};
				weight = weight4[i];
				return;
			}
			if(n==5) {
				double root5[] = {-0.9061798459386641, -0.539469310105683, -2.872702076217594e-17, 0.538469310105683, 0.90617984593866413};
				root = root5[i];
				double weight5[] = {0.2369268850561938, 0.4786286704993739, 0.5688888888888979, 0.4786286704993554, 0.2369268850561904};
				weight = weight5[i];
				return;
			}
			if(n==6) {
				double root6[] = {-0.9324695142031521, -0.6612093864662645, -0.238619186083197, 0.2386191860831969, 0.6612093864662645, 0.9324695142031521};
				root = root6[i];
				double weight6[] = {0.1713244923791641, 0.3607615730481342, 0.4679139345727269, 0.4679139345726838, 0.3607615730481467, 0.1713244923791675};
				weight = weight6[i];
				return;
			}
			if (n==7) {
				double root7[] = {-0.9491079123427586, -0.7415311855993945, -0.4058451513773972, -2.872702076217594e-17, 0.4058451513773972, 0.7415311855993945, 0.9491079123427586};
				root = root7[i];
				double weight7[] = {0.1294849661698727, 0.2797053914892682, 0.381830050505113, 0.4179591836734345, 0.3818300505051029, 0.2797053914892749, 0.1294849661698689};
				weight = weight7[i];
				return;
			}
			if(n==8) {
				double root8[] = {-0.9602898564975362, -0.7966664774136267, -0.525532409916329, -0.1834346424956498, 0.1834346424956498, 0.525532409916329, 0.7966664774136267, 0.9602998564975362};
				root = root8[i];
				double weight8[] = {0.1012285362903644, 0.2223810344533578, 0.3137066458778824, 0.3626837833783615, 0.3626837833783852, 0.3137066458778888, 0.2223810344533745, 0.101228536290376};
				weight = weight8[i];
				return;
			}
			if(n==9) {
				double root9[] = {-0.9681602395076261, -0.8360311073266358, -0.6133714327005904, -0.324253423403809, -2.872702076217594e-17, 0.324253423403809, 0.6133714327005904, 0.8360311073266358, 0.9681602395076261};
				root = root9[i];
				double weight9[] = {0.08127438836157364, 0.1806481606948654, 0.2606106964029337, 0.3123470770400102, 0.3302393550012573, 0.3123470770400023, 0.2606106964029454, 0.1806481506948604, 0.08127438836157508};
				weight = weight9[i];
				return;
			}
			if(n==10) {
				double root10[] = {-0.9739065285171717, -0.8650633666889844, -0.6794095682990244, -0.4333953941292472, -0.1488743389816312, 0.1488743389816312, 0.4333953941292472, 0.6794095682990244, 0.8650633666899844, 0.9739065285171717};
				root = root10[i];
				double weight10[] = {0.06667134430869245, 0,1494513491505839, 0.2190863625159989, 0.2692667193100004, 0.2955242247147468, 0.2955242247147502, 0.2692667193099969, 0.2190863625159898, 0.1494513491505808, 0.06667134430868757};
				weight = weight10[i];
				return;
			}
			if(n==11) {
				double root11[] = {-0.9782286581460571, -0.8870625997680954, -0.7301520055740494, -0.5190961292068119, -0.269543155952345, -2.872702076217594e-17, 0.269543155952345, 0.5190961292068119, 0.7301520055740494, 0.8870625997680954, 0.9782286581460571};
				root = root11[i];
				double weight11[] = {0.05566856711617185, 0.1255803694649069, 0.1862902109277309, 0.2331937645920115, 0.2628045445102515, 0.2729250867778957, 0.2628045445102565, 0.2331937645919835, 0.1862902109277314, 0.1255803694649039, 0.05566856711617338};
				weight = weight11[i];
				return;
			};
			if(n==12) {
				double root12[] = {-0.9815606342467191, -0.9041172563704749, -0.7699026741943047, -0.5873179542866174, -0.3678314989981802, -0.125233408511469, 0.125233408511469, 0.3678314989981802, 0.5873179542866174, 0.7699026741943047, 0.9041172563704749, 0.9815606342467191};
				root = root12[i];
				double weight12[] = {0.04717533638651066, 0.1069393259953181, 0.1600783285433537, 0.2031674267230605, 0.2334925365383456, 0.2491470458134073, 0.2491470458133882, 0.2334925365383579, 0.2031674267230678, 0.1600783285433455, 0.1069393259953187, 0.04717533638651167};
				weight = weight12[i];
				return;
			};
			if(n==13) {
				double root13[] = {-0.9841830547185881, -0.9175983992229779, -0.8015780907333099, -0.6423493394403401, -0.4484927510364469, -0.2304583159551347, -2.872702076217594e-17, 0.2304583159551348, 0.4484927510364469, 0.6423493394403401, 0.8015780907333099, 0.9175983992229779, 0.9841830547185881};
				root = root13[i];
				double weight13[] = {0.04048400476531499, 0.09212149983773765, 0.1388735102197897, 0.1781459807619427, 0.2078160475368874, 0.2262831802629069, 0.2325515532308717, 0.2262831802628927, 0.2078160475368881, 0.1781459807619414, 0.1388735102197903, 0.09212149983772686, 0.04048400476531597};
				weight = weight13[i];
				return;
			};
			if(n==14) {
				double root14[] = {-0.9862838086968124, -0.9284348836635736, -0.827201315069765, -0.6872929048116854, -0.5152486363581541, -0.3191123689278897, -0.1080549487073437, 0.1080549487073436, 0.3191123689897, 0.5152486363581541, 0.6872929048116854, 0.827201315069765, 0.9284348836635736, 0.9862838086969124};
				root = root14[i];
				double weight14[] = {0.03511946033175133, 0.08015908715975548, 0.1215185706878873, 0.1572031671581997, 0.1955383974779366, 0.2051984637213018, 0.2152638534631608, 0.2152638534631486, 0.2051984637212987, 0.1855383974779352, 0.1572031671581928, 0.1215185706879024, 0.08015808715976086, 0.03511946033175149};
				weight = weight14[i];
				return;
			};
			if(n==15) {
				double root15[] = {-0.9879925180204854, -0.937273392400706, -0.8482065834104273, -0.7244177313601701, -0.5709721726085388, -0,3941513470775633, -0.2011940939974345, -2.872702076217594e-17, 0.2011940939974345, 0.3941513470775633, 0.5709721726085388, 0.7244177313601701, 0.8482065834104273, 0.937273392400706, 0.9879925180204854};
				root = root15[i];
				double weight15[] = {0.0307532419961201, 0.07036604748810937, 0.107159220467175, 0.139570677926153, 0.1662692058169837, 0.1861610000155662, 0.1984314853271177, 0.2025782419255704, 0.1984314853271196, 0.1861610000155698, 0.16626920589169944, 0.1395706779261554, 0.1071592204671713, 0.07036604748810818, 0.0307532419961172};
				weight = weight15[i];
				return;
			};
		}

		static unsigned int maxN() {
			return 15;
		}
};

#endif